Language model created by QuickLM on Mon Jun 12 18:27:35 EDT 2017
Copyright (c) 1996-2010 Carnegie Mellon University and Alexander I. Rudnicky

The model is in standard ARPA format, designed by Doug Paul while he was at MITRE.

The code that was used to produce this language model is available in Open Source.
Please visit http://www.speech.cs.cmu.edu/tools/ for more information

The (fixed) discount mass is 0.5. The backoffs are computed using the ratio method.
This model based on a corpus of 17 sentences and 38 words

\data\
ngram 1=38
ngram 2=57
ngram 3=50

\1-grams:
-1.0344 </s> -0.3010
-1.0344 <s> -0.2589
-1.9638 ALARM -0.2866
-1.9638 AM -0.2563
-1.7877 AN -0.2939
-2.2648 BENJAMIN -0.2589
-1.7877 CHECK -0.2939
-2.2648 CURRENT -0.2987
-2.2648 EMAIL -0.2589
-1.4867 FOR -0.2457
-2.2648 FOUR -0.2987
-2.2648 HISTORY -0.2589
-2.2648 HOUR -0.2589
-2.2648 I -0.2589
-2.2648 JAZZ -0.2589
-1.9638 LIGHTS -0.2589
-2.2648 MINUTE -0.2987
-2.2648 MINUTES -0.2589
-2.2648 MUSIC -0.2589
-2.2648 OFF -0.2963
-2.2648 ON -0.2963
-1.9638 ONE -0.2963
-1.7877 PLAY -0.2939
-2.2648 PM -0.2589
-2.2648 POP -0.2589
-2.2648 SEARCH -0.2987
-2.2648 SECONDS -0.2589
-2.2648 SEND -0.2939
-1.5658 SET -0.2866
-2.2648 SEVEN -0.2963
-2.2648 THIRTY -0.2987
-1.7877 TIMER -0.2866
-2.2648 TRAFFIC -0.2589
-1.9638 TURN -0.2963
-2.2648 TWENTY -0.2987
-2.2648 WEATHER -0.2589
-2.2648 WEB -0.2866
-2.2648 WHERE -0.2963

\2-grams:
-1.5315 <s> BENJAMIN 0.0000
-1.0544 <s> CHECK 0.0000
-1.0544 <s> PLAY 0.0000
-1.5315 <s> SEARCH 0.0000
-1.5315 <s> SEND 0.0000
-0.8325 <s> SET 0.0000
-1.2304 <s> TURN 0.0000
-1.5315 <s> WHERE 0.0000
-0.3010 ALARM FOR -0.2218
-0.6021 AM </s> -0.3010
-0.6021 AM I 0.0000
-0.4771 AN ALARM 0.0000
-0.7782 AN EMAIL 0.0000
-0.3010 BENJAMIN </s> -0.3010
-0.7782 CHECK CURRENT 0.0000
-0.7782 CHECK HISTORY 0.0000
-0.7782 CHECK TRAFFIC 0.0000
-0.3010 CURRENT WEATHER 0.0000
-0.3010 EMAIL </s> -0.3010
-1.0792 FOR </s> -0.3010
-1.0792 FOR FOUR 0.0000
-0.7782 FOR ONE 0.0000
-1.0792 FOR SEVEN 0.0000
-1.0792 FOR TWENTY 0.0000
-0.3010 FOUR PM 0.0000
-0.3010 HISTORY </s> -0.3010
-0.3010 HOUR </s> -0.3010
-0.3010 I </s> -0.3010
-0.3010 JAZZ </s> -0.3010
-0.3010 LIGHTS </s> -0.3010
-0.3010 MINUTE THIRTY 0.0000
-0.3010 MINUTES </s> -0.3010
-0.3010 MUSIC </s> -0.3010
-0.3010 OFF LIGHTS 0.0000
-0.3010 ON LIGHTS 0.0000
-0.6021 ONE HOUR 0.0000
-0.6021 ONE MINUTE 0.0000
-0.7782 PLAY JAZZ 0.0000
-0.7782 PLAY MUSIC 0.0000
-0.7782 PLAY POP 0.0000
-0.3010 PM </s> -0.3010
-0.3010 POP </s> -0.3010
-0.3010 SEARCH WEB 0.0000
-0.3010 SECONDS </s> -0.3010
-0.3010 SEND AN -0.2218
-0.6990 SET AN -0.1249
-0.5229 SET TIMER 0.0000
-0.3010 SEVEN AM -0.1761
-0.3010 THIRTY SECONDS 0.0000
-0.3010 TIMER FOR -0.1761
-0.3010 TRAFFIC </s> -0.3010
-0.6021 TURN OFF 0.0000
-0.6021 TURN ON 0.0000
-0.3010 TWENTY MINUTES 0.0000
-0.3010 WEATHER </s> -0.3010
-0.3010 WEB FOR -0.2632
-0.3010 WHERE AM -0.1761

\3-grams:
-0.3010 <s> BENJAMIN </s>
-0.7782 <s> CHECK CURRENT
-0.7782 <s> CHECK HISTORY
-0.7782 <s> CHECK TRAFFIC
-0.7782 <s> PLAY JAZZ
-0.7782 <s> PLAY MUSIC
-0.7782 <s> PLAY POP
-0.3010 <s> SEARCH WEB
-0.3010 <s> SEND AN
-0.6990 <s> SET AN
-0.5229 <s> SET TIMER
-0.6021 <s> TURN OFF
-0.6021 <s> TURN ON
-0.3010 <s> WHERE AM
-0.6021 ALARM FOR FOUR
-0.6021 ALARM FOR SEVEN
-0.3010 AM I </s>
-0.3010 AN ALARM FOR
-0.3010 AN EMAIL </s>
-0.3010 CHECK CURRENT WEATHER
-0.3010 CHECK HISTORY </s>
-0.3010 CHECK TRAFFIC </s>
-0.3010 CURRENT WEATHER </s>
-0.3010 FOR FOUR PM
-0.6021 FOR ONE HOUR
-0.6021 FOR ONE MINUTE
-0.3010 FOR SEVEN AM
-0.3010 FOR TWENTY MINUTES
-0.3010 FOUR PM </s>
-0.3010 MINUTE THIRTY SECONDS
-0.3010 OFF LIGHTS </s>
-0.3010 ON LIGHTS </s>
-0.3010 ONE HOUR </s>
-0.3010 ONE MINUTE THIRTY
-0.3010 PLAY JAZZ </s>
-0.3010 PLAY MUSIC </s>
-0.3010 PLAY POP </s>
-0.3010 SEARCH WEB FOR
-0.3010 SEND AN EMAIL
-0.3010 SET AN ALARM
-0.3010 SET TIMER FOR
-0.3010 SEVEN AM </s>
-0.3010 THIRTY SECONDS </s>
-0.4771 TIMER FOR ONE
-0.7782 TIMER FOR TWENTY
-0.3010 TURN OFF LIGHTS
-0.3010 TURN ON LIGHTS
-0.3010 TWENTY MINUTES </s>
-0.3010 WEB FOR </s>
-0.3010 WHERE AM I

\end\
