Language model created by QuickLM on Tue Jun  6 16:59:40 EDT 2017
Copyright (c) 1996-2010 Carnegie Mellon University and Alexander I. Rudnicky

The model is in standard ARPA format, designed by Doug Paul while he was at MITRE.

The code that was used to produce this language model is available in Open Source.
Please visit http://www.speech.cs.cmu.edu/tools/ for more information

The (fixed) discount mass is 0.5. The backoffs are computed using the ratio method.
This model based on a corpus of 10 sentences and 26 words

\data\
ngram 1=26
ngram 2=34
ngram 3=34

\1-grams:
-1.1206 </s> -0.3010
-1.1206 <s> -0.2668
-2.1206 A -0.2977
-2.1206 AM -0.2977
-1.6435 CHECK -0.2910
-2.1206 CURRENT -0.2977
-2.1206 EMAIL -0.2668
-2.1206 FOR -0.2668
-1.1206 HEY -0.2668
-2.1206 HISTORY -0.2668
-2.1206 I -0.2668
-1.8195 LIGHTS -0.2668
-2.1206 MUSIC -0.2668
-2.1206 OFF -0.2944
-2.1206 ON -0.2944
-2.1206 PLAY -0.2977
-2.1206 SEARCH -0.2977
-2.1206 SEND -0.2977
-2.1206 SET -0.2977
-2.1206 TIMER -0.2668
-2.1206 TRAFFIC -0.2668
-1.8195 TURN -0.2944
-2.1206 WEATHER -0.2668
-2.1206 WEB -0.2977
-2.1206 WHERE -0.2977
-1.1206 YOU -0.2668

\2-grams:
-0.3010 <s> HEY 0.0000
-0.3010 A TIMER 0.0000
-0.3010 AM I 0.0000
-0.7782 CHECK CURRENT 0.0000
-0.7782 CHECK HISTORY 0.0000
-0.7782 CHECK TRAFFIC 0.0000
-0.3010 CURRENT WEATHER 0.0000
-0.3010 EMAIL </s> -0.3010
-0.3010 FOR </s> -0.3010
-0.3010 HEY YOU 0.0000
-0.3010 HISTORY </s> -0.3010
-0.3010 I </s> -0.3010
-0.3010 LIGHTS </s> -0.3010
-0.3010 MUSIC </s> -0.3010
-0.3010 OFF LIGHTS 0.0000
-0.3010 ON LIGHTS 0.0000
-0.3010 PLAY MUSIC 0.0000
-0.3010 SEARCH WEB 0.0000
-0.3010 SEND EMAIL 0.0000
-0.3010 SET A 0.0000
-0.3010 TIMER </s> -0.3010
-0.3010 TRAFFIC </s> -0.3010
-0.6021 TURN OFF 0.0000
-0.6021 TURN ON 0.0000
-0.3010 WEATHER </s> -0.3010
-0.3010 WEB FOR 0.0000
-0.3010 WHERE AM 0.0000
-0.8239 YOU CHECK 0.0000
-1.3010 YOU PLAY 0.0000
-1.3010 YOU SEARCH 0.0000
-1.3010 YOU SEND 0.0000
-1.3010 YOU SET 0.0000
-1.0000 YOU TURN 0.0000
-1.3010 YOU WHERE 0.0000

\3-grams:
-0.3010 <s> HEY YOU
-0.3010 A TIMER </s>
-0.3010 AM I </s>
-0.3010 CHECK CURRENT WEATHER
-0.3010 CHECK HISTORY </s>
-0.3010 CHECK TRAFFIC </s>
-0.3010 CURRENT WEATHER </s>
-0.8239 HEY YOU CHECK
-1.3010 HEY YOU PLAY
-1.3010 HEY YOU SEARCH
-1.3010 HEY YOU SEND
-1.3010 HEY YOU SET
-1.0000 HEY YOU TURN
-1.3010 HEY YOU WHERE
-0.3010 OFF LIGHTS </s>
-0.3010 ON LIGHTS </s>
-0.3010 PLAY MUSIC </s>
-0.3010 SEARCH WEB FOR
-0.3010 SEND EMAIL </s>
-0.3010 SET A TIMER
-0.3010 TURN OFF LIGHTS
-0.3010 TURN ON LIGHTS
-0.3010 WEB FOR </s>
-0.3010 WHERE AM I
-0.7782 YOU CHECK CURRENT
-0.7782 YOU CHECK HISTORY
-0.7782 YOU CHECK TRAFFIC
-0.3010 YOU PLAY MUSIC
-0.3010 YOU SEARCH WEB
-0.3010 YOU SEND EMAIL
-0.3010 YOU SET A
-0.6021 YOU TURN OFF
-0.6021 YOU TURN ON
-0.3010 YOU WHERE AM

\end\
