Language model created by QuickLM on Thu Jun 15 18:54:40 EDT 2017
Copyright (c) 1996-2010 Carnegie Mellon University and Alexander I. Rudnicky

The model is in standard ARPA format, designed by Doug Paul while he was at MITRE.

The code that was used to produce this language model is available in Open Source.
Please visit http://www.speech.cs.cmu.edu/tools/ for more information

The (fixed) discount mass is 0.5. The backoffs are computed using the ratio method.
This model based on a corpus of 49 sentences and 55 words

\data\
ngram 1=55
ngram 2=102
ngram 3=63

\1-grams:
-0.8177 </s> -0.3010
-0.8177 <s> -0.2293
-2.5079 ALARM -0.2293
-2.5079 AM -0.2997
-2.5079 BENJAMIN -0.2293
-2.2068 BRIGHTNESS -0.2956
-2.5079 DANCE -0.2293
-2.5079 DEFINE -0.2293
-2.2068 DOWN -0.2293
-2.5079 EIGHT -0.2293
-2.5079 EIGHTEEN -0.2293
-2.5079 EIGHTY -0.2293
-2.5079 ELEVEN -0.2293
-2.5079 FIFTEEN -0.2293
-2.5079 FIFTY -0.2293
-2.5079 FIVE -0.2293
-2.5079 FORTY -0.2293
-2.5079 FOUR -0.2293
-2.5079 FOURTEEN -0.2293
-2.5079 GOOGLE -0.2293
-2.5079 HOUR -0.2293
-2.5079 HUNDRED -0.2293
-2.5079 I -0.2293
-2.5079 JAZZ -0.2293
-2.5079 MINUTE -0.2293
-2.5079 MUSIC -0.2293
-2.5079 NINE -0.2293
-2.5079 NINETY -0.2293
-2.5079 ONE -0.2293
-2.5079 OPEN -0.2293
-1.7297 PLAY -0.2929
-2.5079 POP -0.2293
-2.5079 RAP -0.2293
-2.5079 ROCK -0.2293
-2.2068 SET -0.2983
-2.5079 SEVEN -0.2293
-2.5079 SEVENTEEN -0.2293
-2.5079 SEVENTY -0.2293
-2.5079 SIX -0.2293
-2.5079 SIXTEEN -0.2293
-2.5079 SIXTY -0.2293
-2.5079 SUBLIME -0.2293
-2.5079 TEN -0.2293
-2.5079 TERMINAL -0.2293
-2.5079 THIRTEEN -0.2293
-2.5079 THIRTY -0.2293
-2.5079 THOUSAND -0.2293
-2.5079 THREE -0.2293
-2.5079 TIMER -0.2293
-2.5079 TWELVE -0.2293
-2.5079 TWENTY -0.2293
-2.5079 TWO -0.2293
-2.2068 UP -0.2293
-2.2068 VOLUME -0.2956
-2.5079 WHERE -0.2997

\2-grams:
-1.9912 <s> BENJAMIN 0.0000
-1.6902 <s> BRIGHTNESS 0.0000
-1.9912 <s> DEFINE 0.0000
-1.9912 <s> EIGHT 0.0000
-1.9912 <s> EIGHTEEN 0.0000
-1.9912 <s> EIGHTY 0.0000
-1.9912 <s> ELEVEN 0.0000
-1.9912 <s> FIFTEEN 0.0000
-1.9912 <s> FIFTY 0.0000
-1.9912 <s> FIVE 0.0000
-1.9912 <s> FORTY 0.0000
-1.9912 <s> FOUR 0.0000
-1.9912 <s> FOURTEEN 0.0000
-1.9912 <s> GOOGLE 0.0000
-1.9912 <s> HOUR 0.0000
-1.9912 <s> HUNDRED 0.0000
-1.9912 <s> MINUTE 0.0000
-1.9912 <s> NINE 0.0000
-1.9912 <s> NINETY 0.0000
-1.9912 <s> ONE 0.0000
-1.9912 <s> OPEN 0.0000
-1.2131 <s> PLAY 0.0000
-1.6902 <s> SET 0.0000
-1.9912 <s> SEVEN 0.0000
-1.9912 <s> SEVENTEEN 0.0000
-1.9912 <s> SEVENTY 0.0000
-1.9912 <s> SIX 0.0000
-1.9912 <s> SIXTEEN 0.0000
-1.9912 <s> SIXTY 0.0000
-1.9912 <s> SUBLIME 0.0000
-1.9912 <s> TEN 0.0000
-1.9912 <s> TERMINAL 0.0000
-1.9912 <s> THIRTEEN 0.0000
-1.9912 <s> THIRTY 0.0000
-1.9912 <s> THOUSAND 0.0000
-1.9912 <s> THREE 0.0000
-1.9912 <s> TWELVE 0.0000
-1.9912 <s> TWENTY 0.0000
-1.9912 <s> TWO 0.0000
-1.6902 <s> VOLUME 0.0000
-1.9912 <s> WHERE 0.0000
-0.3010 ALARM </s> -0.3010
-0.3010 AM I 0.0000
-0.3010 BENJAMIN </s> -0.3010
-0.6021 BRIGHTNESS DOWN 0.0000
-0.6021 BRIGHTNESS UP 0.0000
-0.3010 DANCE </s> -0.3010
-0.3010 DEFINE </s> -0.3010
-0.3010 DOWN </s> -0.3010
-0.3010 EIGHT </s> -0.3010
-0.3010 EIGHTEEN </s> -0.3010
-0.3010 EIGHTY </s> -0.3010
-0.3010 ELEVEN </s> -0.3010
-0.3010 FIFTEEN </s> -0.3010
-0.3010 FIFTY </s> -0.3010
-0.3010 FIVE </s> -0.3010
-0.3010 FORTY </s> -0.3010
-0.3010 FOUR </s> -0.3010
-0.3010 FOURTEEN </s> -0.3010
-0.3010 GOOGLE </s> -0.3010
-0.3010 HOUR </s> -0.3010
-0.3010 HUNDRED </s> -0.3010
-0.3010 I </s> -0.3010
-0.3010 JAZZ </s> -0.3010
-0.3010 MINUTE </s> -0.3010
-0.3010 MUSIC </s> -0.3010
-0.3010 NINE </s> -0.3010
-0.3010 NINETY </s> -0.3010
-0.3010 ONE </s> -0.3010
-0.3010 OPEN </s> -0.3010
-1.0792 PLAY DANCE 0.0000
-1.0792 PLAY JAZZ 0.0000
-1.0792 PLAY MUSIC 0.0000
-1.0792 PLAY POP 0.0000
-1.0792 PLAY RAP 0.0000
-1.0792 PLAY ROCK 0.0000
-0.3010 POP </s> -0.3010
-0.3010 RAP </s> -0.3010
-0.3010 ROCK </s> -0.3010
-0.6021 SET ALARM 0.0000
-0.6021 SET TIMER 0.0000
-0.3010 SEVEN </s> -0.3010
-0.3010 SEVENTEEN </s> -0.3010
-0.3010 SEVENTY </s> -0.3010
-0.3010 SIX </s> -0.3010
-0.3010 SIXTEEN </s> -0.3010
-0.3010 SIXTY </s> -0.3010
-0.3010 SUBLIME </s> -0.3010
-0.3010 TEN </s> -0.3010
-0.3010 TERMINAL </s> -0.3010
-0.3010 THIRTEEN </s> -0.3010
-0.3010 THIRTY </s> -0.3010
-0.3010 THOUSAND </s> -0.3010
-0.3010 THREE </s> -0.3010
-0.3010 TIMER </s> -0.3010
-0.3010 TWELVE </s> -0.3010
-0.3010 TWENTY </s> -0.3010
-0.3010 TWO </s> -0.3010
-0.3010 UP </s> -0.3010
-0.6021 VOLUME DOWN 0.0000
-0.6021 VOLUME UP 0.0000
-0.3010 WHERE AM 0.0000

\3-grams:
-0.3010 <s> BENJAMIN </s>
-0.6021 <s> BRIGHTNESS DOWN
-0.6021 <s> BRIGHTNESS UP
-0.3010 <s> DEFINE </s>
-0.3010 <s> EIGHT </s>
-0.3010 <s> EIGHTEEN </s>
-0.3010 <s> EIGHTY </s>
-0.3010 <s> ELEVEN </s>
-0.3010 <s> FIFTEEN </s>
-0.3010 <s> FIFTY </s>
-0.3010 <s> FIVE </s>
-0.3010 <s> FORTY </s>
-0.3010 <s> FOUR </s>
-0.3010 <s> FOURTEEN </s>
-0.3010 <s> GOOGLE </s>
-0.3010 <s> HOUR </s>
-0.3010 <s> HUNDRED </s>
-0.3010 <s> MINUTE </s>
-0.3010 <s> NINE </s>
-0.3010 <s> NINETY </s>
-0.3010 <s> ONE </s>
-0.3010 <s> OPEN </s>
-1.0792 <s> PLAY DANCE
-1.0792 <s> PLAY JAZZ
-1.0792 <s> PLAY MUSIC
-1.0792 <s> PLAY POP
-1.0792 <s> PLAY RAP
-1.0792 <s> PLAY ROCK
-0.6021 <s> SET ALARM
-0.6021 <s> SET TIMER
-0.3010 <s> SEVEN </s>
-0.3010 <s> SEVENTEEN </s>
-0.3010 <s> SEVENTY </s>
-0.3010 <s> SIX </s>
-0.3010 <s> SIXTEEN </s>
-0.3010 <s> SIXTY </s>
-0.3010 <s> SUBLIME </s>
-0.3010 <s> TEN </s>
-0.3010 <s> TERMINAL </s>
-0.3010 <s> THIRTEEN </s>
-0.3010 <s> THIRTY </s>
-0.3010 <s> THOUSAND </s>
-0.3010 <s> THREE </s>
-0.3010 <s> TWELVE </s>
-0.3010 <s> TWENTY </s>
-0.3010 <s> TWO </s>
-0.6021 <s> VOLUME DOWN
-0.6021 <s> VOLUME UP
-0.3010 <s> WHERE AM
-0.3010 AM I </s>
-0.3010 BRIGHTNESS DOWN </s>
-0.3010 BRIGHTNESS UP </s>
-0.3010 PLAY DANCE </s>
-0.3010 PLAY JAZZ </s>
-0.3010 PLAY MUSIC </s>
-0.3010 PLAY POP </s>
-0.3010 PLAY RAP </s>
-0.3010 PLAY ROCK </s>
-0.3010 SET ALARM </s>
-0.3010 SET TIMER </s>
-0.3010 VOLUME DOWN </s>
-0.3010 VOLUME UP </s>
-0.3010 WHERE AM I

\end\
