Language model created by QuickLM on Thu Jun 15 13:09:42 EDT 2017
Copyright (c) 1996-2010 Carnegie Mellon University and Alexander I. Rudnicky

The model is in standard ARPA format, designed by Doug Paul while he was at MITRE.

The code that was used to produce this language model is available in Open Source.
Please visit http://www.speech.cs.cmu.edu/tools/ for more information

The (fixed) discount mass is 0.5. The backoffs are computed using the ratio method.
This model based on a corpus of 9 sentences and 37 words

\data\
ngram 1=37
ngram 2=45
ngram 3=37

\1-grams:
-1.1027 </s> -0.3010
-1.1027 <s> -0.2653
-1.7559 A -0.2933
-2.0569 AMOUNT -0.2972
-2.0569 BUBBLE -0.2972
-2.0569 CAKE -0.2653
-2.0569 CAN -0.2972
-2.0569 COOKIES -0.2653
-2.0569 CREATED -0.2972
-2.0569 DAY -0.2653
-2.0569 DIRECTIONS -0.2972
-2.0569 DONUTS -0.2653
-2.0569 DREAMS -0.2653
-2.0569 FACTS -0.2933
-2.0569 FIND -0.2972
-1.7559 FOR -0.2933
-2.0569 GET -0.2972
-2.0569 HEALTHY -0.2972
-2.0569 I -0.2972
-1.7559 IS -0.2933
-2.0569 KREME -0.2653
-2.0569 KRISPY -0.2972
-2.0569 ME -0.2972
-2.0569 NUTRITIONAL -0.2972
-2.0569 OF -0.2972
-2.0569 OREOS -0.2653
-2.0569 PER -0.2972
-2.0569 PLAY -0.2972
-2.0569 RECIPE -0.2933
-2.0569 SUGAR -0.2972
-2.0569 SWEET -0.2972
-2.0569 TAPIOCA -0.2653
-2.0569 TEA -0.2653
-2.0569 TO -0.2972
-1.7559 WHAT -0.2933
-2.0569 WHERE -0.2972
-2.0569 WHO -0.2972

\2-grams:
-1.2553 <s> DIRECTIONS 0.0000
-1.2553 <s> FIND 0.0000
-1.2553 <s> NUTRITIONAL 0.0000
-1.2553 <s> PLAY 0.0000
-1.2553 <s> RECIPE 0.0000
-0.9542 <s> WHAT 0.0000
-1.2553 <s> WHERE 0.0000
-1.2553 <s> WHO 0.0000
-0.6021 A CAKE 0.0000
-0.6021 A HEALTHY 0.0000
-0.3010 AMOUNT OF 0.0000
-0.3010 BUBBLE TEA 0.0000
-0.3010 CAKE </s> -0.3010
-0.3010 CAN I 0.0000
-0.3010 COOKIES </s> -0.3010
-0.3010 CREATED OREOS 0.0000
-0.3010 DAY </s> -0.3010
-0.3010 DIRECTIONS TO 0.0000
-0.3010 DONUTS </s> -0.3010
-0.3010 DREAMS </s> -0.3010
-0.3010 FACTS FOR -0.1761
-0.3010 FIND ME 0.0000
-0.6021 FOR COOKIES 0.0000
-0.6021 FOR TAPIOCA 0.0000
-0.3010 GET BUBBLE 0.0000
-0.3010 HEALTHY AMOUNT 0.0000
-0.3010 I GET 0.0000
-0.3010 IS A 0.0000
-0.3010 KREME </s> -0.3010
-0.3010 KRISPY KREME 0.0000
-0.3010 ME DONUTS 0.0000
-0.3010 NUTRITIONAL FACTS 0.0000
-0.3010 OF SUGAR 0.0000
-0.3010 OREOS </s> -0.3010
-0.3010 PER DAY 0.0000
-0.3010 PLAY SWEET 0.0000
-0.3010 RECIPE FOR -0.1761
-0.3010 SUGAR PER 0.0000
-0.3010 SWEET DREAMS 0.0000
-0.3010 TAPIOCA </s> -0.3010
-0.3010 TEA </s> -0.3010
-0.3010 TO KRISPY 0.0000
-0.3010 WHAT IS 0.0000
-0.3010 WHERE CAN 0.0000
-0.3010 WHO CREATED 0.0000

\3-grams:
-0.3010 <s> DIRECTIONS TO
-0.3010 <s> FIND ME
-0.3010 <s> NUTRITIONAL FACTS
-0.3010 <s> PLAY SWEET
-0.3010 <s> RECIPE FOR
-0.3010 <s> WHAT IS
-0.3010 <s> WHERE CAN
-0.3010 <s> WHO CREATED
-0.3010 A CAKE </s>
-0.3010 A HEALTHY AMOUNT
-0.3010 AMOUNT OF SUGAR
-0.3010 BUBBLE TEA </s>
-0.3010 CAN I GET
-0.3010 CREATED OREOS </s>
-0.3010 DIRECTIONS TO KRISPY
-0.3010 FACTS FOR TAPIOCA
-0.3010 FIND ME DONUTS
-0.3010 FOR COOKIES </s>
-0.3010 FOR TAPIOCA </s>
-0.3010 GET BUBBLE TEA
-0.3010 HEALTHY AMOUNT OF
-0.3010 I GET BUBBLE
-0.6021 IS A CAKE
-0.6021 IS A HEALTHY
-0.3010 KRISPY KREME </s>
-0.3010 ME DONUTS </s>
-0.3010 NUTRITIONAL FACTS FOR
-0.3010 OF SUGAR PER
-0.3010 PER DAY </s>
-0.3010 PLAY SWEET DREAMS
-0.3010 RECIPE FOR COOKIES
-0.3010 SUGAR PER DAY
-0.3010 SWEET DREAMS </s>
-0.3010 TO KRISPY KREME
-0.3010 WHAT IS A
-0.3010 WHERE CAN I
-0.3010 WHO CREATED OREOS

\end\
